{
  "layers": [
    {
      "weights": [
        [
          -0.036039602011442184,
          0.31022775173187256,
          -0.004449499770998955,
          -0.10595822334289551,
          0.24094828963279724,
          -0.023785224184393883,
          -0.0019761763978749514,
          -0.432559072971344,
          0.12709811329841614,
          -0.020457318052649498
        ],
        [
          -0.08779383450746536,
          -0.02447771467268467,
          -0.07856936752796173,
          -0.28722822666168213,
          -0.27029091119766235,
          -0.1441846340894699,
          -0.047950100153684616,
          0.4228067398071289,
          0.0167952049523592,
          -0.15532171726226807
        ],
        [
          0.0006963303312659264,
          -0.17288357019424438,
          -0.11842229217290878,
          -0.2996293604373932,
          -0.1815730333328247,
          -0.06164250522851944,
          0.1789470911026001,
          -0.1972220540046692,
          -0.1188722774386406,
          -0.19516858458518982
        ],
        [
          -0.028935324400663376,
          -0.2214779257774353,
          -0.013938932679593563,
          -0.18605951964855194,
          0.03779396414756775,
          0.11277832090854645,
          0.10145875811576843,
          -0.06830915808677673,
          -0.16396650671958923,
          -0.08078128099441528
        ],
        [
          -0.17242121696472168,
          -0.005349759012460709,
          0.03332708030939102,
          -0.1895609349012375,
          -0.2873825132846832,
          0.18013262748718262,
          0.09118177741765976,
          -0.33421456813812256,
          0.3927490711212158,
          -0.1399315744638443
        ],
        [
          -0.18256524205207825,
          0.054334089159965515,
          0.26533839106559753,
          -0.09881407022476196,
          -0.0470283105969429,
          0.008571688085794449,
          -0.0011565634049475193,
          -0.17476513981819153,
          -0.2809465527534485,
          -0.19821636378765106
        ],
        [
          -0.21180197596549988,
          -0.13744573295116425,
          -0.03894156590104103,
          -0.08899281919002533,
          0.033034633845090866,
          -0.12958665192127228,
          -0.02020479179918766,
          0.18006254732608795,
          -0.2264081835746765,
          -0.19381795823574066
        ],
        [
          0.2120348960161209,
          0.05492372065782547,
          -0.1194198727607727,
          0.24830009043216705,
          -0.1453496813774109,
          0.28522971272468567,
          0.1731795221567154,
          0.2672766447067261,
          -0.2546440064907074,
          -0.21319451928138733
        ],
        [
          -0.18928344547748566,
          -0.09766919910907745,
          0.0922897458076477,
          0.15111395716667175,
          0.06505097448825836,
          -0.055073656141757965,
          -0.20845742523670197,
          0.10584893822669983,
          -0.09549175947904587,
          0.11902119219303131
        ],
        [
          -0.0024473159573972225,
          0.26402416825294495,
          0.005357271060347557,
          0.09086797386407852,
          0.01972934976220131,
          -0.1116897389292717,
          0.16638047993183136,
          0.1895541399717331,
          -0.031389325857162476,
          0.11296343058347702
        ],
        [
          0.043508145958185196,
          0.20756866037845612,
          -0.05860048905014992,
          0.14365383982658386,
          -0.06824462860822678,
          -0.21355684101581573,
          -0.21417757868766785,
          -0.25419488549232483,
          0.21698452532291412,
          -0.19370432198047638
        ],
        [
          0.16159982979297638,
          0.18783286213874817,
          -0.14131511747837067,
          0.32380977272987366,
          0.17480382323265076,
          0.034080445766448975,
          -0.16861671209335327,
          -0.14524075388908386,
          -0.2943388819694519,
          0.04389839991927147
        ],
        [
          -0.15862788259983063,
          0.2760464549064636,
          -0.12667988240718842,
          0.0929967537522316,
          -0.18067346513271332,
          -0.0299365296959877,
          0.04284316301345825,
          0.1798810362815857,
          0.14841432869434357,
          -0.17158716917037964
        ],
        [
          -0.10167215764522552,
          0.039937518537044525,
          0.07759560644626617,
          0.16582749783992767,
          0.08132410794496536,
          0.10673534125089645,
          -0.2016298919916153,
          -0.10266918689012527,
          0.05698658153414726,
          0.1878831833600998
        ],
        [
          -0.163388192653656,
          0.19525021314620972,
          0.23120884597301483,
          0.1602904200553894,
          -0.11964374035596848,
          0.11020191013813019,
          0.19284775853157043,
          0.14957769215106964,
          -0.091063492000103,
          -0.17263807356357574
        ],
        [
          -0.036188531666994095,
          -0.06067417189478874,
          0.07488904893398285,
          0.057998742908239365,
          -0.07499289512634277,
          -0.17716993391513824,
          0.1705930531024933,
          0.2664516568183899,
          -0.2132498323917389,
          0.2493494749069214
        ],
        [
          -0.0545126311480999,
          0.12876920402050018,
          0.15541686117649078,
          -0.020981157198548317,
          0.22925661504268646,
          0.21953609585762024,
          -0.17339979112148285,
          -0.09817405045032501,
          -0.3549368977546692,
          -0.17011848092079163
        ],
        [
          0.1439865380525589,
          -0.033108342438936234,
          -0.21691904962062836,
          -0.06878681480884552,
          0.18932494521141052,
          0.14757965505123138,
          0.06793362647294998,
          -0.19475294649600983,
          0.13784797489643097,
          -0.11824475973844528
        ],
        [
          -0.032036300748586655,
          -0.07682537287473679,
          0.016380351036787033,
          0.032477036118507385,
          0.18164697289466858,
          0.11873668432235718,
          -0.021813372150063515,
          -0.2141675353050232,
          -0.15764500200748444,
          0.09962045401334763
        ],
        [
          -0.2270618975162506,
          -0.18701452016830444,
          0.016637856140732765,
          -0.034324657171964645,
          -0.17012998461723328,
          -0.17002958059310913,
          0.001613964093849063,
          -0.23200836777687073,
          0.0846964418888092,
          -0.04379671439528465
        ],
        [
          0.14227840304374695,
          0.25216102600097656,
          0.005740398541092873,
          0.055423907935619354,
          -0.09553317725658417,
          0.08449941128492355,
          0.04701504856348038,
          -0.17629532516002655,
          0.12662072479724884,
          0.06462328881025314
        ],
        [
          0.09601331502199173,
          0.1624813824892044,
          -0.01452309638261795,
          0.1927693635225296,
          -0.04307348281145096,
          -0.006171513348817825,
          -0.0008025448769330978,
          -0.23506766557693481,
          0.05765683203935623,
          0.23593416810035706
        ],
        [
          0.09311341494321823,
          -0.1863250881433487,
          0.2521372139453888,
          -0.1294800192117691,
          -0.14153969287872314,
          0.18445293605327606,
          0.1679249256849289,
          -0.23724082112312317,
          0.10341109335422516,
          -0.261747270822525
        ],
        [
          -0.019238213077187538,
          0.2913442850112915,
          -0.04363720491528511,
          0.3756307363510132,
          0.33927789330482483,
          0.09303112328052521,
          0.14730584621429443,
          0.1972738653421402,
          0.2536119818687439,
          0.14313605427742004
        ],
        [
          -0.18975818157196045,
          0.09776488691568375,
          -0.21697385609149933,
          0.22511212527751923,
          -0.22284172475337982,
          -0.20646359026432037,
          -0.2287316471338272,
          0.35388627648353577,
          0.016051897779107094,
          0.1549719125032425
        ],
        [
          -0.08966844528913498,
          -0.0670880526304245,
          0.23196347057819366,
          0.027178514748811722,
          -0.1425429731607437,
          0.17900115251541138,
          0.009222147054970264,
          0.030032040551304817,
          0.10723607987165451,
          0.04610183462500572
        ],
        [
          -0.020075688138604164,
          0.21638810634613037,
          -0.2082379311323166,
          -0.06636027991771698,
          0.276295930147171,
          0.05008133500814438,
          0.1274392306804657,
          0.3535229563713074,
          -0.2166719138622284,
          0.0705302357673645
        ],
        [
          0.21444179117679596,
          -0.16088829934597015,
          0.1530063897371292,
          -0.08150664716959,
          -0.10591214150190353,
          0.18372921645641327,
          0.21913060545921326,
          0.17678587138652802,
          0.27172553539276123,
          0.09702391922473907
        ],
        [
          0.27596065402030945,
          0.18093472719192505,
          -0.2961084842681885,
          0.19653841853141785,
          0.21297262609004974,
          0.00888489093631506,
          -0.07945865392684937,
          0.30053412914276123,
          -0.005926472134888172,
          0.16786931455135345
        ],
        [
          -0.09786482900381088,
          0.05746699124574661,
          0.28431347012519836,
          -0.10479920357465744,
          -0.08095844089984894,
          0.09340454638004303,
          -0.06727702915668488,
          0.2040165215730667,
          0.22585125267505646,
          -0.3126266598701477
        ],
        [
          0.1384073942899704,
          0.026544060558080673,
          0.002613940741866827,
          -0.13198693096637726,
          0.3177631199359894,
          -0.20186661183834076,
          0.16777321696281433,
          0.2643033266067505,
          -0.059648964554071426,
          -0.1786584109067917
        ],
        [
          -0.10190307348966599,
          -0.3011407256126404,
          0.04483121633529663,
          -0.1847420185804367,
          -0.08460524678230286,
          -0.054659657180309296,
          0.02455521747469902,
          0.36175212264060974,
          0.2875383496284485,
          -0.011967038735747337
        ],
        [
          0.29861584305763245,
          -0.22977173328399658,
          0.3719322681427002,
          -0.03974161297082901,
          -0.13736680150032043,
          -0.09290852397680283,
          -0.04861665144562721,
          -0.17151324450969696,
          -0.0756467804312706,
          0.137553408741951
        ],
        [
          -0.16015715897083282,
          0.1425955593585968,
          -0.12559287250041962,
          0.011869991198182106,
          -0.38132062554359436,
          0.07541133463382721,
          -0.03843541070818901,
          0.22949457168579102,
          0.2865346670150757,
          -0.019955309107899666
        ],
        [
          -0.18087458610534668,
          -0.15157070755958557,
          0.22432877123355865,
          0.007503357715904713,
          -0.28144314885139465,
          -0.20496682822704315,
          0.16983449459075928,
          -0.3818623721599579,
          0.04606648162007332,
          0.022644368931651115
        ],
        [
          -0.03963616117835045,
          0.08103347569704056,
          0.06750283390283585,
          -0.12571725249290466,
          -0.00992061011493206,
          -0.20161660015583038,
          -0.18595342338085175,
          -0.10065988451242447,
          0.2534499764442444,
          -0.24175983667373657
        ],
        [
          0.14221437275409698,
          -0.1700783222913742,
          -0.08274621516466141,
          0.04944640025496483,
          0.05494506284594536,
          -0.29348626732826233,
          -0.11397219449281693,
          -0.14104004204273224,
          -0.3268810212612152,
          -0.0636262446641922
        ],
        [
          -0.33575719594955444,
          0.1911362111568451,
          0.22546790540218353,
          -0.010113672353327274,
          -0.33205148577690125,
          -0.1313096433877945,
          0.2594681680202484,
          0.08882791548967361,
          -0.2409181147813797,
          -0.07016374915838242
        ],
        [
          0.19461897015571594,
          0.258171409368515,
          -0.10926184803247452,
          -0.006881197448819876,
          0.2504640221595764,
          0.16769620776176453,
          -0.1077960729598999,
          0.3488294184207916,
          -0.19129838049411774,
          0.06683825701475143
        ],
        [
          0.03522861376404762,
          -0.21364648640155792,
          0.21442703902721405,
          0.07541199028491974,
          -0.15650202333927155,
          0.16122743487358093,
          0.03607117012143135,
          0.003052705666050315,
          0.1333758383989334,
          -0.11645275354385376
        ],
        [
          0.14702658355236053,
          0.14750076830387115,
          -0.10680481791496277,
          0.15873149037361145,
          -0.06209584325551987,
          0.02209453657269478,
          0.1850191354751587,
          -0.4868777394294739,
          -0.12917083501815796,
          -0.010472745634615421
        ],
        [
          0.20749127864837646,
          -0.1550692915916443,
          0.24883466958999634,
          0.2786751389503479,
          -0.11918162554502487,
          -0.06456132978200912,
          -0.10073871910572052,
          -0.16677315533161163,
          0.008687907829880714,
          -0.10072290152311325
        ],
        [
          0.06785130500793457,
          0.23174849152565002,
          -0.03544888645410538,
          0.126569002866745,
          0.21376225352287292,
          -0.08308207988739014,
          -0.07030414044857025,
          0.41323527693748474,
          0.10284367203712463,
          0.2111819088459015
        ],
        [
          -0.013627614825963974,
          0.19561588764190674,
          -0.17924319207668304,
          -0.23139356076717377,
          -0.09725695103406906,
          0.1940688192844391,
          0.27776703238487244,
          0.182704359292984,
          -0.04984894022345543,
          0.11060163378715515
        ],
        [
          -0.20322270691394806,
          0.2760598957538605,
          -0.002523058094084263,
          0.20595741271972656,
          -0.03277004137635231,
          -0.11344116181135178,
          0.13231265544891357,
          -0.019773181527853012,
          0.04602517560124397,
          -0.3132422864437103
        ],
        [
          0.17559894919395447,
          0.19485321640968323,
          -0.28668880462646484,
          -0.15111202001571655,
          0.16674110293388367,
          -0.10032916814088821,
          0.09150386601686478,
          -0.08905277401208878,
          0.002488910686224699,
          0.02020728774368763
        ],
        [
          -0.1024584174156189,
          -0.005159012507647276,
          0.03107418864965439,
          0.33502328395843506,
          0.09305880218744278,
          0.1385723054409027,
          0.12284237891435623,
          -0.3291747272014618,
          -0.11575719714164734,
          -0.01428341493010521
        ],
        [
          0.08424848318099976,
          -0.033977482467889786,
          0.25990211963653564,
          -0.21228595077991486,
          -0.1788310706615448,
          -0.17749612033367157,
          -0.20139649510383606,
          0.3195636570453644,
          -0.05567656084895134,
          -0.015445265918970108
        ],
        [
          -0.16567084193229675,
          0.10559659451246262,
          -0.027115771546959877,
          -0.22387132048606873,
          -0.1846086084842682,
          -0.15643781423568726,
          -0.08069764822721481,
          0.08089487254619598,
          0.08043438196182251,
          -0.06146546080708504
        ],
        [
          0.001954304985702038,
          0.054041653871536255,
          0.3096795380115509,
          0.1867167055606842,
          0.009722246788442135,
          -0.10426498204469681,
          0.085175521671772,
          0.03730098530650139,
          0.22488990426063538,
          -0.0156815554946661
        ],
        [
          0.044050831347703934,
          0.07088085263967514,
          -0.05342765152454376,
          -0.24295710027217865,
          -0.1829017698764801,
          0.26422518491744995,
          0.03831271454691887,
          -0.3065868318080902,
          -0.20160602033138275,
          -0.3136492967605591
        ],
        [
          0.14387360215187073,
          0.09369930624961853,
          0.02366475947201252,
          0.13791359961032867,
          -0.03956481069326401,
          -0.13550396263599396,
          0.16870154440402985,
          0.10478758811950684,
          0.1575462967157364,
          0.2667667269706726
        ],
        [
          -0.03254862129688263,
          -0.17840667068958282,
          -0.010887972079217434,
          -0.23718667030334473,
          0.17305923998355865,
          -0.05622970312833786,
          0.1777230054140091,
          0.11439135670661926,
          0.029750104993581772,
          -0.22981609404087067
        ],
        [
          -0.30214476585388184,
          0.2569405436515808,
          0.2051720917224884,
          -0.11766372621059418,
          0.1307060271501541,
          0.12790021300315857,
          -0.23181825876235962,
          0.21716748178005219,
          -0.038325779139995575,
          -0.0892496407032013
        ],
        [
          0.1593264490365982,
          -0.057796016335487366,
          -0.2287611961364746,
          -0.2996368706226349,
          -0.09917058050632477,
          0.2562837600708008,
          -0.18177540600299835,
          0.22295808792114258,
          -0.2258101999759674,
          -0.40234681963920593
        ],
        [
          0.34691137075424194,
          0.09191840142011642,
          -0.014402415603399277,
          0.24902185797691345,
          -0.2173418402671814,
          -0.12889347970485687,
          0.11016321182250977,
          0.20788900554180145,
          -0.2527342140674591,
          -0.03914618119597435
        ],
        [
          -0.21170061826705933,
          -0.12125737965106964,
          -0.3763018846511841,
          -0.07069110870361328,
          -0.11212240159511566,
          0.023471353575587273,
          -0.3446294963359833,
          -0.0056963455863296986,
          0.08409258723258972,
          0.0712050274014473
        ],
        [
          -0.22192557156085968,
          0.07828900218009949,
          -0.0045295837335288525,
          0.031062006950378418,
          0.017791185528039932,
          -0.1281644105911255,
          -0.4186690151691437,
          0.1300717443227768,
          0.19823594391345978,
          0.13303016126155853
        ],
        [
          0.10361917316913605,
          0.12121345102787018,
          -0.03994258865714073,
          0.00869042705744505,
          -0.20653846859931946,
          -0.023040734231472015,
          -0.45397645235061646,
          -0.24033620953559875,
          0.17649896442890167,
          0.0071249050088226795
        ],
        [
          0.059166647493839264,
          -0.10891187936067581,
          0.07367763668298721,
          0.23938754200935364,
          -0.20867331326007843,
          0.06096861883997917,
          -0.23760461807250977,
          0.24788473546504974,
          -0.10114964842796326,
          0.010755840688943863
        ],
        [
          -0.1855577975511551,
          -0.17543022334575653,
          -0.09985946118831635,
          0.10195209085941315,
          0.2399957776069641,
          -0.20197871327400208,
          0.06295521557331085,
          -0.20694084465503693,
          -0.10797099769115448,
          -0.0820716992020607
        ],
        [
          -0.2720111608505249,
          0.00941246747970581,
          0.2947835624217987,
          -0.1967019885778427,
          -0.011344929225742817,
          -0.22313421964645386,
          -0.29359737038612366,
          -0.330488383769989,
          0.10466475784778595,
          -0.12418943643569946
        ],
        [
          0.11380083113908768,
          0.2811182737350464,
          -0.08575936406850815,
          -0.02193683385848999,
          0.318482369184494,
          0.09095064550638199,
          0.2660800814628601,
          -0.27092164754867554,
          0.03646543622016907,
          0.17343010008335114
        ],
        [
          -0.0024060397408902645,
          0.2436506152153015,
          -0.015143569558858871,
          0.030840281397104263,
          -0.24882492423057556,
          0.018064649775624275,
          -0.23613978922367096,
          0.2918013036251068,
          0.018613964319229126,
          -0.008292864076793194
        ]
      ],
      "bias": [
        -0.16234903037548065,
        -0.21390098333358765,
        -0.0987321212887764,
        0.34641900658607483,
        0.3050927221775055,
        0.007200407329946756,
        0.019980594515800476,
        0.15221190452575684,
        0.14139369130134583,
        0.0027304026298224926,
        0.3655668795108795,
        0.09457435458898544,
        0.13344277441501617,
        0.33065199851989746,
        0.16253288090229034,
        0.4223882257938385,
        0.24510720372200012,
        0.31609126925468445,
        -0.005537861492484808,
        0.12862615287303925,
        0.30104902386665344,
        0.17615382373332977,
        -0.14449793100357056,
        -0.18860861659049988,
        0.05769330635666847,
        0.2702612280845642,
        0.3163227438926697,
        0.024594426155090332,
        0.02183021977543831,
        0.2490655779838562,
        -0.12126367539167404,
        0.2398899793624878,
        -0.214961439371109,
        0.30844566226005554,
        0.06963708996772766,
        -0.10193423181772232,
        0.30333808064460754,
        0.15298563241958618,
        -0.07935076951980591,
        0.2843216061592102,
        -0.18427518010139465,
        -0.027623238041996956,
        -0.15156851708889008,
        -0.0886853039264679,
        0.020837729796767235,
        0.3937513828277588,
        -0.11691069602966309,
        -0.02371610701084137,
        -0.08734926581382751,
        0.19394874572753906,
        -0.04104536026716232,
        -0.27111944556236267,
        0.1147536039352417,
        -0.17872905731201172,
        0.20040678977966309,
        0.06259513646364212,
        0.3432678282260895,
        -0.024005962535738945,
        -0.06770437210798264,
        -0.18952520191669464,
        0.30108845233917236,
        -0.07269713282585144,
        -0.206026092171669,
        -0.3020901381969452
      ]
    },
    {
      "weights": [
        [
          -0.11906794458627701,
          0.008260400034487247,
          0.06814482063055038,
          -0.07311389595270157,
          -0.10261079668998718,
          -0.02413122169673443,
          -0.010488179512321949,
          0.10385138541460037,
          0.021988635882735252,
          -0.051396552473306656,
          0.13908930122852325,
          -0.05787333846092224,
          0.14300696551799774,
          -0.02465476654469967,
          -0.01302336622029543,
          0.09469396620988846,
          -0.05559435486793518,
          0.002869626274332404,
          -0.044578321278095245,
          -0.04816761240363121,
          0.002048926195129752,
          0.04394441097974777,
          0.07891162484884262,
          0.08373896032571793,
          0.12851183116436005,
          -0.046480920165777206,
          0.00033874891232699156,
          -0.05100004002451897,
          -0.01791752316057682,
          0.006982256192713976,
          0.06131131947040558,
          0.15716387331485748,
          -0.07038950175046921,
          0.11237520724534988,
          -0.011104179546236992,
          -0.026826756075024605,
          0.05327760800719261,
          0.08325135707855225,
          -0.06549541652202606,
          0.06199391186237335,
          -0.028118884190917015,
          0.006554251536726952,
          0.028867235407233238,
          -0.037359531968832016,
          0.11102232336997986,
          -0.004079020116478205,
          -0.03617284819483757,
          0.13256137073040009,
          0.0031004806514829397,
          0.12423286586999893,
          -0.019080527126789093,
          0.06249332055449486,
          0.0934428796172142,
          -0.07287344336509705,
          0.08722788840532303,
          0.02555217407643795,
          0.06485653668642044,
          -0.016263645142316818,
          -0.03688793256878853,
          0.03013584204018116,
          -0.04934905096888542,
          0.0509706512093544,
          -0.026937441900372505,
          0.03129841759800911
        ],
        [
          -0.031128274276852608,
          -0.06422965973615646,
          -0.016759822145104408,
          0.11984765529632568,
          -0.0699814110994339,
          -0.019315144047141075,
          -0.0017188957426697016,
          0.0965423732995987,
          0.05293244868516922,
          -0.055332981050014496,
          -0.07263272255659103,
          -0.033544037491083145,
          0.12044734507799149,
          -0.0704621821641922,
          -0.019430920481681824,
          0.12159454077482224,
          0.056344565004110336,
          -0.014124215580523014,
          -0.0886576771736145,
          -0.12564755976200104,
          0.07686686515808105,
          0.04179280996322632,
          -0.074827179312706,
          -0.024472173303365707,
          0.04238075390458107,
          0.07314318418502808,
          0.15856248140335083,
          0.03047221153974533,
          0.0661979466676712,
          0.11420691013336182,
          0.05349193140864372,
          0.05544968694448471,
          0.023403869941830635,
          0.11945170909166336,
          0.014557503163814545,
          0.10216933488845825,
          -0.07622236758470535,
          0.15541766583919525,
          0.0022162781096994877,
          0.04679447039961815,
          -0.024358870461583138,
          0.03808156028389931,
          0.09638512134552002,
          0.04202451929450035,
          0.02120409905910492,
          0.004593690857291222,
          -0.0013680976117029786,
          0.13400159776210785,
          0.08737298101186752,
          -0.05186716094613075,
          -0.023414650931954384,
          0.05085458233952522,
          0.05069264397025108,
          0.09980538487434387,
          0.11618739366531372,
          0.10312802344560623,
          -0.0510890893638134,
          0.12805038690567017,
          0.03806383162736893,
          0.0663302093744278,
          0.07215113937854767,
          -0.06317193061113358,
          -0.0035661703441292048,
          0.1897514909505844
        ],
        [
          0.11316286772489548,
          -0.0607297345995903,
          0.03239322081208229,
          0.03965498507022858,
          0.023092441260814667,
          -0.017479058355093002,
          0.02967981807887554,
          0.09940021485090256,
          0.05600796639919281,
          0.14942649006843567,
          0.08938946574926376,
          0.19305174052715302,
          0.12219075858592987,
          0.0554502047598362,
          -0.05851578712463379,
          -0.04201880842447281,
          0.16202007234096527,
          0.04963391274213791,
          0.025133447721600533,
          -0.03723372891545296,
          0.15828505158424377,
          0.12691758573055267,
          0.14034022390842438,
          -0.027028420940041542,
          0.03361372649669647,
          0.10882754623889923,
          0.1274547129869461,
          0.09074705094099045,
          -0.07237616181373596,
          -0.0623222179710865,
          0.05413497984409332,
          -0.06509498506784439,
          -0.000922537175938487,
          -0.0354960635304451,
          0.14162659645080566,
          -0.039218753576278687,
          0.04284650459885597,
          0.11543874442577362,
          -0.07898767292499542,
          0.04857105389237404,
          0.11987905204296112,
          0.11733148992061615,
          -0.005870753433555365,
          0.0018087852513417602,
          0.12217522412538528,
          -0.04071475565433502,
          0.15266118943691254,
          0.0205939132720232,
          0.07586709409952164,
          -0.052434708923101425,
          0.061141788959503174,
          -0.04968172684311867,
          -0.026754774153232574,
          0.08843974769115448,
          0.09563974291086197,
          0.019988879561424255,
          0.14040608704090118,
          0.059710510075092316,
          0.18875949084758759,
          0.015343507751822472,
          0.007692035287618637,
          0.15424223244190216,
          0.10845155268907547,
          -0.25327005982398987
        ],
        [
          -0.09560629725456238,
          0.10021212697029114,
          0.011818659491837025,
          0.17777705192565918,
          -0.0866285115480423,
          0.04150920361280441,
          0.10790346562862396,
          0.16606926918029785,
          -0.01273566484451294,
          0.04407144710421562,
          0.1228015124797821,
          -0.0549275241792202,
          -0.03951000049710274,
          0.05586458742618561,
          -0.01668013259768486,
          0.02939394675195217,
          -0.008640984073281288,
          -0.04024873673915863,
          -0.07226651161909103,
          -0.07920413464307785,
          -0.05193948745727539,
          -0.0875437781214714,
          -0.025017617270350456,
          0.17681989073753357,
          0.12517516314983368,
          -0.04347836971282959,
          0.13276667892932892,
          0.13659746944904327,
          -0.034959208220243454,
          0.005750726442784071,
          0.08931533992290497,
          0.059871967881917953,
          0.06201706454157829,
          0.019804317504167557,
          0.04172837734222412,
          -0.04243181645870209,
          0.09606417268514633,
          2.176618181692902e-05,
          0.16914811730384827,
          0.14852307736873627,
          -0.16466037929058075,
          -0.010572443716228008,
          0.1620301753282547,
          0.07642277330160141,
          0.06837313622236252,
          0.048082925379276276,
          -0.08847548812627792,
          0.008590111508965492,
          0.1034407764673233,
          -0.04268166050314903,
          -0.11147402971982956,
          0.07688506692647934,
          -0.04051860794425011,
          0.14486993849277496,
          0.04093291983008385,
          0.12014409154653549,
          0.1141868308186531,
          0.0033334826584905386,
          -0.05747205391526222,
          0.08654938638210297,
          0.00762442871928215,
          -0.06417810171842575,
          0.02681526355445385,
          0.07208643853664398
        ],
        [
          0.04930514469742775,
          0.025227107107639313,
          0.011235149577260017,
          0.013040491379797459,
          0.00980497244745493,
          0.046725835651159286,
          0.0035027137491852045,
          -0.03850378096103668,
          -0.050303440541028976,
          0.08402574807405472,
          -0.04120568186044693,
          -0.011980434879660606,
          -0.057001903653144836,
          -0.013252033852040768,
          -0.06372324377298355,
          -0.0009900022996589541,
          0.11883202940225601,
          0.10718002915382385,
          0.009062034077942371,
          0.11977145820856094,
          0.017091503366827965,
          0.02968226931989193,
          -0.028326215222477913,
          0.012303202413022518,
          0.12511809170246124,
          0.020190343260765076,
          -0.06238182261586189,
          -0.008458415046334267,
          0.08150877803564072,
          0.06131623685359955,
          -0.03978791460394859,
          0.012747317552566528,
          0.11815617978572845,
          0.059978120028972626,
          0.11518902331590652,
          0.095348060131073,
          0.09066078811883926,
          0.07892867177724838,
          -0.028505079448223114,
          0.019277561455965042,
          0.15457198023796082,
          0.07881496101617813,
          -0.02875685691833496,
          0.007882966659963131,
          0.08416873961687088,
          0.11259246617555618,
          0.015476187691092491,
          0.03700008615851402,
          0.015090481378138065,
          0.05215967074036598,
          0.06607620418071747,
          0.04673648253083229,
          0.0784073919057846,
          0.03547460958361626,
          0.08784772455692291,
          0.04962752014398575,
          0.07871183007955551,
          -0.05191805213689804,
          0.1459200084209442,
          0.008357576094567776,
          -0.04564345255494118,
          0.03048892132937908,
          0.05661548301577568,
          -0.09641952067613602
        ],
        [
          0.1367357075214386,
          -0.12173453718423843,
          0.03741077333688736,
          0.08406240493059158,
          0.15131337940692902,
          0.012315892614424229,
          0.07097303867340088,
          -0.06525568664073944,
          0.14466390013694763,
          0.032779987901449203,
          0.05198230221867561,
          0.1966431438922882,
          -0.09069499373435974,
          0.056793734431266785,
          0.0617348812520504,
          -0.04766593128442764,
          0.030732305720448494,
          -0.02345823496580124,
          -0.008774196729063988,
          0.1686972975730896,
          0.08797431737184525,
          0.1459195613861084,
          0.11160866916179657,
          -0.06663607060909271,
          0.08013485372066498,
          -0.02262069284915924,
          0.037209849804639816,
          -0.037951674312353134,
          0.08045005053281784,
          -0.02582908235490322,
          0.019655834883451462,
          -0.10544485598802567,
          0.09159213304519653,
          -0.06296540796756744,
          0.013734967447817326,
          0.03386276960372925,
          0.10660058259963989,
          -0.07582630217075348,
          -0.03845902159810066,
          0.06882145255804062,
          0.1690996140241623,
          0.14376695454120636,
          0.04658525064587593,
          -0.06598968058824539,
          -0.028556615114212036,
          0.07789107412099838,
          0.051954127848148346,
          -0.02729208394885063,
          0.06313641369342804,
          0.08019015192985535,
          0.10173594206571579,
          -0.14722149074077606,
          -0.07229378074407578,
          0.07715509086847305,
          0.07531154155731201,
          0.009235830046236515,
          0.18438851833343506,
          -0.006664960645139217,
          0.05773333087563515,
          -0.0419568233191967,
          -0.011886311694979668,
          -0.03431333228945732,
          -0.024088386446237564,
          -0.23502112925052643
        ],
        [
          -0.02044825442135334,
          0.14613227546215057,
          0.11121036112308502,
          0.04857981950044632,
          -0.08812505751848221,
          0.08569293469190598,
          0.05343152955174446,
          0.10992562770843506,
          0.011556160636246204,
          0.006409296300262213,
          0.053269319236278534,
          -0.007935701869428158,
          -0.014387089759111404,
          0.0660492479801178,
          0.0645231381058693,
          0.08552269637584686,
          0.10821584612131119,
          -0.11503421515226364,
          -0.06854753196239471,
          -0.05708005279302597,
          -0.02359410747885704,
          -0.013992351479828358,
          -0.10980559885501862,
          0.06585301458835602,
          0.023247946053743362,
          0.04771322384476662,
          0.0038879388011991978,
          0.01701122708618641,
          0.1261066347360611,
          -0.027261540293693542,
          0.002259017899632454,
          -0.009403961710631847,
          0.01635541394352913,
          0.08233050256967545,
          -0.019189907237887383,
          -0.008971692062914371,
          0.01130360085517168,
          0.12665049731731415,
          0.020658627152442932,
          -0.007038862910121679,
          0.013539247214794159,
          -0.05409533903002739,
          -0.005469084717333317,
          0.14506757259368896,
          -0.06794851273298264,
          0.0033158252481371164,
          -0.06807601451873779,
          -0.02108636498451233,
          -0.028689341619610786,
          -0.00478264270350337,
          -0.13552027940750122,
          0.10037554055452347,
          0.0012044264003634453,
          -0.0881664976477623,
          0.09141810983419418,
          -0.007692986633628607,
          0.016382552683353424,
          -0.005501844920217991,
          -0.06602361798286438,
          0.13426242768764496,
          0.002124322345480323,
          -0.049378130584955215,
          -0.03970736265182495,
          0.1881645768880844
        ],
        [
          0.0038525050040334463,
          0.13378696143627167,
          0.015558123588562012,
          0.08489282429218292,
          0.019505402073264122,
          0.04367499798536301,
          -0.024022724479436874,
          0.031040646135807037,
          0.006154579576104879,
          0.08744771778583527,
          0.07815646380186081,
          0.11240536719560623,
          0.03275666758418083,
          0.04900998994708061,
          -0.005796652287244797,
          0.03280701860785484,
          0.15069985389709473,
          0.08692155033349991,
          0.028235001489520073,
          0.02450818195939064,
          0.11790478974580765,
          -0.060296475887298584,
          -0.03159138560295105,
          0.0666276291012764,
          0.08645059168338776,
          0.08030261099338531,
          0.13659191131591797,
          -0.04568212479352951,
          0.13467730581760406,
          0.11968643218278885,
          0.01663537696003914,
          -0.035141412168741226,
          0.02893635258078575,
          0.025477735325694084,
          0.08786825090646744,
          0.0054734740406274796,
          0.08634921908378601,
          -0.02997373603284359,
          0.1737576723098755,
          0.08947213739156723,
          0.17717665433883667,
          0.13619525730609894,
          0.02593185380101204,
          0.04311828687787056,
          0.1565619856119156,
          -0.03194982931017876,
          0.1532725691795349,
          0.056354448199272156,
          0.09835996478796005,
          0.02481864020228386,
          0.13927504420280457,
          -0.057699233293533325,
          0.07380911707878113,
          0.08294307440519333,
          0.1511853188276291,
          0.12691602110862732,
          0.053012914955616,
          -0.043754324316978455,
          0.005603669676929712,
          0.044163305312395096,
          -0.04129570350050926,
          0.09225273877382278,
          0.04591406509280205,
          0.002461027819663286
        ],
        [
          0.007668258156627417,
          -0.14028297364711761,
          -0.04747892916202545,
          -0.018609102815389633,
          0.09566503763198853,
          0.14840766787528992,
          -0.02790793776512146,
          -0.019381452351808548,
          0.08580252528190613,
          -0.02354441024363041,
          0.10381880402565002,
          0.1463056206703186,
          -0.0758557915687561,
          0.1454315185546875,
          -0.0619284063577652,
          -0.06257519125938416,
          0.1231561228632927,
          0.17564757168293,
          0.011938520707190037,
          0.06735189259052277,
          0.155832439661026,
          0.1163422241806984,
          0.13003310561180115,
          -0.04548650607466698,
          -0.03249654173851013,
          0.047169871628284454,
          0.047231536358594894,
          -0.011745002120733261,
          -0.02298356220126152,
          -0.007699561305344105,
          -0.0560881569981575,
          0.010630511678755283,
          -0.035387929528951645,
          -0.011084786616265774,
          0.1777249574661255,
          0.019606370478868484,
          0.01992764323949814,
          0.1333792805671692,
          0.050298940390348434,
          0.05944732949137688,
          0.0706813633441925,
          0.03018917329609394,
          -0.010943671688437462,
          0.05128510668873787,
          0.08408322185277939,
          0.08643808960914612,
          0.01881951466202736,
          -0.07222649455070496,
          0.0026848420966416597,
          -0.027065806090831757,
          0.16926656663417816,
          -0.01633894070982933,
          0.011845123954117298,
          -0.02658294513821602,
          0.07082774490118027,
          0.0888078585267067,
          0.11622567474842072,
          0.1012011244893074,
          0.12183541804552078,
          0.03961482271552086,
          0.08511605113744736,
          0.16094940900802612,
          0.13830871880054474,
          -0.10197973996400833
        ],
        [
          -0.1646156758069992,
          0.03211922571063042,
          0.0007001208141446114,
          0.046027787029743195,
          -0.009594609960913658,
          -0.05944634974002838,
          0.05961349606513977,
          0.15565894544124603,
          0.1193237155675888,
          0.11307966709136963,
          0.06761915981769562,
          -0.05518311262130737,
          0.08737707138061523,
          0.11629526317119598,
          0.13685157895088196,
          0.014918369241058826,
          0.10412397235631943,
          0.0586453340947628,
          -0.07421950995922089,
          0.0062463846988976,
          -0.02460285648703575,
          -0.07990177720785141,
          -0.057967230677604675,
          -0.029464682564139366,
          0.1369437575340271,
          0.08558432012796402,
          0.019894974306225777,
          0.08989861607551575,
          -0.011504526250064373,
          0.14394161105155945,
          0.1263752579689026,
          0.15554140508174896,
          -0.03012520633637905,
          0.007035226561129093,
          -0.005965608637779951,
          0.05405604839324951,
          -0.00013937248149886727,
          -0.0050596329383552074,
          0.12021040916442871,
          -0.07544675469398499,
          -0.1347791999578476,
          0.07933175563812256,
          -0.013470232486724854,
          -0.034729279577732086,
          -0.0014441494131460786,
          0.0808485671877861,
          -0.06149463355541229,
          0.10384896397590637,
          -0.02583150379359722,
          0.06366982311010361,
          -0.09911496192216873,
          0.036858368664979935,
          -0.010365082882344723,
          0.11173272877931595,
          0.08658440411090851,
          0.11609885841608047,
          0.07135007530450821,
          0.14367525279521942,
          -0.014831679873168468,
          0.016021324321627617,
          -0.034354664385318756,
          -0.09998027980327606,
          0.013412748463451862,
          0.1345566362142563
        ],
        [
          -0.007755937520414591,
          -0.10801780968904495,
          0.1526428461074829,
          0.10638454556465149,
          -0.006701891776174307,
          0.07304073125123978,
          0.04632808640599251,
          0.0861288383603096,
          0.07054301351308823,
          -0.029949704185128212,
          0.03191761299967766,
          0.029892006888985634,
          0.08312613517045975,
          0.16188442707061768,
          -0.037735335528850555,
          0.04498184099793434,
          0.09348487854003906,
          0.09033080190420151,
          -0.03555241972208023,
          -0.030398331582546234,
          0.14204537868499756,
          -0.006670853588730097,
          -0.0058849407359957695,
          -0.06076843664050102,
          0.09768328070640564,
          0.08837525546550751,
          -0.06307265162467957,
          -0.03473685309290886,
          -0.005448371171951294,
          -0.016255037859082222,
          0.0014786140527576208,
          -0.02892850711941719,
          0.161469504237175,
          -0.04728003591299057,
          0.010807430371642113,
          -0.03682167828083038,
          0.16204997897148132,
          -0.07482215762138367,
          -0.07348567247390747,
          -0.03160442039370537,
          0.03137875348329544,
          0.007397353649139404,
          -0.06532064080238342,
          -0.019594673067331314,
          0.07477343082427979,
          0.17136158049106598,
          0.16490457952022552,
          0.060512106865644455,
          0.030663635581731796,
          -0.06262312829494476,
          0.009978403337299824,
          -0.07031630724668503,
          -0.024243608117103577,
          0.038910772651433945,
          -0.09250003844499588,
          -0.04648442566394806,
          0.14579829573631287,
          -0.07964252680540085,
          0.07240074872970581,
          -0.06708475202322006,
          0.1153259351849556,
          0.1608448028564453,
          0.16581422090530396,
          -0.11000416427850723
        ],
        [
          -0.08910035341978073,
          0.24749626219272614,
          -0.03963005542755127,
          -0.0768711119890213,
          -0.1030830517411232,
          -0.07133322209119797,
          0.09166285395622253,
          0.17472104728221893,
          0.08565868437290192,
          0.13864068686962128,
          -0.1575879454612732,
          -0.1027749627828598,
          0.11024442315101624,
          -0.06569823622703552,
          0.10979051142930984,
          0.11846482008695602,
          -0.013528103940188885,
          -0.07592453062534332,
          -0.00850970670580864,
          -0.10849697142839432,
          -0.0370517298579216,
          -0.07478760182857513,
          -0.1387062668800354,
          -0.04191189259290695,
          0.1602587103843689,
          0.011955047026276588,
          0.04462902247905731,
          0.09490465372800827,
          0.11014292389154434,
          0.08791232854127884,
          0.07310797274112701,
          0.11559773981571198,
          -0.0652235597372055,
          0.05649174749851227,
          -0.028363274410367012,
          -0.17430910468101501,
          -0.04275813326239586,
          -0.0003896480775438249,
          0.018088610842823982,
          0.03751799836754799,
          -0.06280515342950821,
          -0.05953281372785568,
          0.07061219960451126,
          0.1810690313577652,
          -0.00852952804416418,
          -0.029779573902487755,
          -0.0267616119235754,
          0.015399930998682976,
          -0.104423888027668,
          -0.05563801899552345,
          0.026690181344747543,
          0.06168392673134804,
          -0.0406298004090786,
          0.15217962861061096,
          -0.06642958521842957,
          0.021819347515702248,
          0.01801326312124729,
          -0.20017826557159424,
          -0.23134809732437134,
          -0.03351263701915741,
          -0.09140687435865402,
          -0.13559044897556305,
          -0.06149502098560333,
          -0.24776484072208405
        ],
        [
          -0.08714337646961212,
          -0.015679223462939262,
          -0.017229998484253883,
          0.1131109893321991,
          0.03597633168101311,
          -0.0772402286529541,
          0.07525128126144409,
          0.10856491327285767,
          0.04398912191390991,
          -0.0009182800422422588,
          0.08689208328723907,
          -0.0400361530482769,
          0.11174326390028,
          -0.00046073662815615535,
          0.0925789326429367,
          0.09925851970911026,
          0.08847589045763016,
          -0.09336981922388077,
          -0.09988617151975632,
          -0.06760034710168839,
          -0.059224583208560944,
          0.014276581816375256,
          -0.038611799478530884,
          0.019548004493117332,
          0.10551376640796661,
          0.0015091635286808014,
          0.10839474946260452,
          0.12339605391025543,
          -0.0184318870306015,
          0.05912494286894798,
          0.041092049330472946,
          0.13876214623451233,
          0.012306572869420052,
          0.10423258692026138,
          -0.057823967188596725,
          0.010575681924819946,
          0.015036428347229958,
          0.02432856895029545,
          0.1481403410434723,
          -0.024909021332859993,
          -0.0632508248090744,
          0.028154201805591583,
          0.022423885762691498,
          -0.05637944117188454,
          0.04177308455109596,
          0.09046075493097305,
          -0.0033731330186128616,
          0.1390201449394226,
          0.06512974947690964,
          0.032191500067710876,
          0.005888218525797129,
          0.05285295099020004,
          -0.020161034539341927,
          0.13323377072811127,
          0.0925164744257927,
          0.18136435747146606,
          0.10305868089199066,
          0.08326555043458939,
          -0.05567803978919983,
          0.031204527243971825,
          -0.076613649725914,
          0.06886638700962067,
          0.006166066043078899,
          0.055742986500263214
        ],
        [
          0.034828219562768936,
          0.0507013276219368,
          -0.014512025751173496,
          0.07954921573400497,
          0.06151663884520531,
          -0.07708314061164856,
          0.06545162200927734,
          0.10175343602895737,
          -0.034563396126031876,
          0.023660412058234215,
          0.08088977634906769,
          -0.05615407973527908,
          0.09471751749515533,
          -0.11044760048389435,
          -0.0726935863494873,
          0.14162153005599976,
          -0.053364116698503494,
          -0.12443607300519943,
          -0.06352192163467407,
          0.04143162816762924,
          -0.11424796283245087,
          -0.0993359312415123,
          0.03722004219889641,
          0.08268053829669952,
          0.0514630563557148,
          -0.0008354448364116251,
          0.1346418708562851,
          -0.039073679596185684,
          0.11222288012504578,
          0.009683016687631607,
          0.10420654714107513,
          0.11425411701202393,
          -0.06854375451803207,
          0.05512823909521103,
          0.04386380687355995,
          -0.04001091420650482,
          0.021290283650159836,
          0.12033464759588242,
          0.132094144821167,
          -0.10499937832355499,
          0.004950575530529022,
          0.020109832286834717,
          -0.007577717769891024,
          0.06328914314508438,
          -0.06500887125730515,
          0.0358976274728775,
          0.029080361127853394,
          -0.048886679112911224,
          -0.002199603244662285,
          -0.011300156824290752,
          0.03947281092405319,
          -0.048776108771562576,
          0.03888987749814987,
          -0.04916400462388992,
          0.12805306911468506,
          0.06095357611775398,
          -0.010258205235004425,
          0.09671905636787415,
          -0.07921135425567627,
          0.04374593868851662,
          -0.02175780199468136,
          -0.012608792632818222,
          0.048978328704833984,
          0.12287626415491104
        ],
        [
          0.009220065549015999,
          0.14643219113349915,
          -0.05210791155695915,
          -0.02201073057949543,
          0.06360834091901779,
          -0.05643643066287041,
          -0.019118404015898705,
          0.14521417021751404,
          0.06274650990962982,
          -0.017417093738913536,
          0.07653259485960007,
          0.11412525177001953,
          0.09631077945232391,
          0.1112811267375946,
          -0.011012628674507141,
          0.11806657910346985,
          -0.028908615931868553,
          0.09247379004955292,
          0.07805372029542923,
          -0.008307287469506264,
          0.1070019006729126,
          0.12403765320777893,
          0.0022333471570163965,
          -0.030351299792528152,
          0.04988200590014458,
          0.06409002095460892,
          0.08287717401981354,
          0.08876953274011612,
          0.09901861101388931,
          0.13449130952358246,
          -0.021676737815141678,
          0.12494159489870071,
          0.05507366359233856,
          0.10258903354406357,
          0.07829880714416504,
          0.011652723886072636,
          -0.03865315392613411,
          0.030810073018074036,
          -0.032701000571250916,
          -0.026576226577162743,
          0.004874932114034891,
          -0.0073826308362185955,
          0.0730803981423378,
          -0.03310054913163185,
          0.0006085908389650285,
          -0.032752037048339844,
          0.0868402048945427,
          -0.03537321090698242,
          0.05977313593029976,
          0.08579086512327194,
          0.0734182819724083,
          0.02946447767317295,
          0.1078142374753952,
          0.1077575758099556,
          0.1170731708407402,
          0.09025551378726959,
          0.06667176634073257,
          -0.07158369570970535,
          0.1116536557674408,
          0.006928084883838892,
          0.12277858704328537,
          -0.052647583186626434,
          -0.06298118084669113,
          0.08745846897363663
        ],
        [
          -0.08363161981105804,
          0.0907568484544754,
          0.09180112928152084,
          0.03899731487035751,
          -0.14800453186035156,
          -0.014787214808166027,
          0.00844588689506054,
          0.07230920344591141,
          0.12587659060955048,
          0.04447557032108307,
          -0.00984110590070486,
          0.04997649043798447,
          0.10211075097322464,
          -0.03830470144748688,
          0.0007481627399101853,
          0.06766433268785477,
          0.1316695660352707,
          -0.03119254671037197,
          -0.04325103759765625,
          -0.06918620318174362,
          -0.03635275736451149,
          -0.08190260082483292,
          -0.0001345177588518709,
          0.07641001045703888,
          -0.007010785862803459,
          0.048506926745176315,
          0.08517672121524811,
          -0.03606078773736954,
          0.07951969653367996,
          0.1032947227358818,
          0.13770000636577606,
          0.13091935217380524,
          0.14975714683532715,
          0.13679993152618408,
          -0.15741229057312012,
          0.09847430139780045,
          0.047385454177856445,
          0.12124710530042648,
          0.14581206440925598,
          0.1450602412223816,
          -0.07282337546348572,
          -0.07487790286540985,
          0.10989099740982056,
          -0.06623196601867676,
          0.08997943997383118,
          -0.0052567133679986,
          0.05212327837944031,
          -0.023038335144519806,
          0.08641429245471954,
          -0.059889309108257294,
          -0.018494369462132454,
          -0.0565371997654438,
          0.01535062026232481,
          0.12688633799552917,
          0.07256783545017242,
          0.15852589905261993,
          0.05140968784689903,
          0.14241717755794525,
          -0.09712435305118561,
          0.1236928328871727,
          0.12353532761335373,
          -0.02891668491065502,
          -0.005887371953576803,
          0.0872238501906395
        ],
        [
          -0.06653761118650436,
          -0.0693606585264206,
          -0.007301134057343006,
          -0.019909070804715157,
          0.009062557481229305,
          -0.036318738013505936,
          0.009834028780460358,
          -0.04007389023900032,
          0.023339055478572845,
          -0.005715360399335623,
          0.028482891619205475,
          -0.03220200538635254,
          0.019242361187934875,
          0.03211499750614166,
          0.0020463578402996063,
          -0.034577447921037674,
          -0.05253298580646515,
          -0.03879614919424057,
          -0.05324595049023628,
          0.0035369873512536287,
          0.02474578469991684,
          0.0825309008359909,
          0.000761633098591119,
          0.04649677872657776,
          0.03761235997080803,
          0.00605048518627882,
          -0.06559731811285019,
          -0.04311252385377884,
          0.013286370784044266,
          -0.029720958322286606,
          -0.015238607302308083,
          0.017706837505102158,
          -0.024209121242165565,
          0.015946252271533012,
          0.023765461519360542,
          -0.07829711586236954,
          -0.017773276194930077,
          -0.04518904909491539,
          -0.022304417565464973,
          0.0035358003806322813,
          -0.10609408468008041,
          0.03712175786495209,
          -0.0024276082403957844,
          -0.06941957026720047,
          -0.03944806754589081,
          -0.059365320950746536,
          -0.08115320652723312,
          -0.05049218237400055,
          -0.05395877733826637,
          0.05936724692583084,
          -0.0066469707526266575,
          0.04582136869430542,
          -0.020013341680169106,
          -0.047014642506837845,
          -0.011575032025575638,
          -0.004651288036257029,
          0.026187321171164513,
          0.005388827994465828,
          -0.01781294494867325,
          0.0004647679743357003,
          -0.006054126191884279,
          -0.019731098785996437,
          0.02702433057129383,
          0.006314333062618971
        ],
        [
          -0.04266596958041191,
          0.08741985261440277,
          -0.030606791377067566,
          -0.06455313414335251,
          0.021181384101510048,
          -0.12572500109672546,
          0.15084204077720642,
          0.1104201152920723,
          -0.03183355927467346,
          0.03570333495736122,
          -0.01990504190325737,
          0.0411820262670517,
          0.1385147124528885,
          0.0326932817697525,
          0.04570651799440384,
          0.12474819272756577,
          0.057734519243240356,
          0.03389551863074303,
          0.021556701511144638,
          0.07573631405830383,
          0.01500171609222889,
          -0.028045745566487312,
          0.08308061957359314,
          -0.010355150327086449,
          0.0959167554974556,
          -0.0609695203602314,
          0.037656474858522415,
          0.012919956818223,
          0.12943138182163239,
          0.02360767126083374,
          0.02291121892631054,
          0.04406370595097542,
          0.031038958579301834,
          0.08532674610614777,
          -0.053966082632541656,
          0.0010144622065126896,
          -0.050583139061927795,
          0.0795263946056366,
          0.06349305063486099,
          0.034367673099040985,
          -0.07165101170539856,
          0.0373661033809185,
          0.12539896368980408,
          -0.0043031321838498116,
          0.11084168404340744,
          0.0027923353482037783,
          -0.13630938529968262,
          0.1444152146577835,
          -0.06355629861354828,
          0.11930041015148163,
          -0.013065728358924389,
          -0.030718008056282997,
          0.031525541096925735,
          -0.057978782802820206,
          -0.048824064433574677,
          0.07729551196098328,
          0.06465690582990646,
          -0.0420406274497509,
          0.010018160566687584,
          0.009002026170492172,
          -0.08575399965047836,
          0.03812280669808388,
          0.03083384782075882,
          0.11599332839250565
        ],
        [
          -0.03214392438530922,
          0.0019914123695343733,
          0.04886297509074211,
          0.051630329340696335,
          -0.11485826969146729,
          -0.05642975866794586,
          -0.013909981586039066,
          -0.023964695632457733,
          0.02197178453207016,
          -0.0006038883584551513,
          0.05504896119236946,
          0.08038816601037979,
          0.1277977079153061,
          0.03515952453017235,
          0.120867520570755,
          0.10535212606191635,
          0.1611613780260086,
          -0.03211485967040062,
          -0.12574785947799683,
          -0.10385666787624359,
          -0.005397891625761986,
          -0.028576085343956947,
          0.07168944925069809,
          0.13359862565994263,
          -0.07362677156925201,
          0.13780732452869415,
          0.12464158236980438,
          -0.04211195930838585,
          -0.03320026770234108,
          -0.03817246854305267,
          0.07993564009666443,
          0.15388967096805573,
          -0.08704239130020142,
          -0.05194680392742157,
          0.05276046693325043,
          0.028310837224125862,
          0.1074945330619812,
          0.007611118722707033,
          0.08377809822559357,
          0.0972118228673935,
          -0.15545399487018585,
          -0.04502410069108009,
          -0.003235509619116783,
          0.04350581020116806,
          -0.041985273361206055,
          -0.06628651171922684,
          -0.05211583524942398,
          0.09095434099435806,
          0.0693385973572731,
          0.1053670346736908,
          -0.021857094019651413,
          0.022464821115136147,
          0.04194580018520355,
          0.10814771801233292,
          -0.009074785746634007,
          0.1724814921617508,
          -0.0320623442530632,
          0.07090985029935837,
          -0.050230108201503754,
          -0.02468183822929859,
          -0.054404061287641525,
          -0.06350041180849075,
          -0.09826399385929108,
          0.04750460013747215
        ],
        [
          -0.11543837189674377,
          0.10732541233301163,
          -0.06643977761268616,
          -0.012746922671794891,
          0.01364610344171524,
          0.07842540740966797,
          -0.006970596965402365,
          0.1460496187210083,
          0.03305741399526596,
          -0.06849929690361023,
          0.03582768514752388,
          -0.016535798087716103,
          0.07460501044988632,
          -0.04997684434056282,
          0.11121253669261932,
          0.08400097489356995,
          0.11128690093755722,
          0.05014960467815399,
          -0.03319195657968521,
          -0.030617261305451393,
          -0.01738978736102581,
          0.03549569100141525,
          -0.005170370452105999,
          0.08256376534700394,
          -0.0030722622759640217,
          -0.024335384368896484,
          -0.007814155891537666,
          0.09267789125442505,
          -0.11950015276670456,
          0.03123021125793457,
          -0.003141768742352724,
          -0.04211489483714104,
          0.07514210045337677,
          -0.011803735978901386,
          -0.08050656318664551,
          -0.09244082123041153,
          0.035215795040130615,
          0.13453057408332825,
          -0.05571550503373146,
          -0.05785035714507103,
          -0.1043243482708931,
          -0.0017725969664752483,
          0.018398797139525414,
          0.13741201162338257,
          -0.11954154074192047,
          -0.09132202714681625,
          -0.0072747147642076015,
          0.016111914068460464,
          -0.10874289274215698,
          0.02970273420214653,
          -0.13506148755550385,
          0.1282520592212677,
          0.02405550144612789,
          -0.08191947638988495,
          0.13063247501850128,
          0.11222077161073685,
          0.08904124796390533,
          0.02954920195043087,
          -0.07472489029169083,
          0.09929141402244568,
          0.04446608945727348,
          0.02836952731013298,
          0.0374298021197319,
          0.12591511011123657
        ],
        [
          -0.15936413407325745,
          -0.05886880308389664,
          0.05749596282839775,
          0.12874214351177216,
          -0.1006058007478714,
          -0.06362999230623245,
          0.0046480740420520306,
          -0.02217773348093033,
          0.1179787740111351,
          0.016246607527136803,
          0.028894420713186264,
          0.02902393415570259,
          -0.046342626214027405,
          -0.015313670970499516,
          0.12136555463075638,
          0.14647290110588074,
          0.03157079219818115,
          0.03557811677455902,
          -0.09915266931056976,
          0.05365658178925514,
          0.048515863716602325,
          -0.03476495295763016,
          0.0749858096241951,
          0.14986571669578552,
          0.0838545486330986,
          0.16208626329898834,
          0.02069079875946045,
          0.056548573076725006,
          0.015338688157498837,
          0.119558185338974,
          0.09088675677776337,
          -0.04246419295668602,
          -0.08213414996862411,
          -0.016796734184026718,
          -0.09986770898103714,
          0.08522380143404007,
          0.006772099062800407,
          0.08017948269844055,
          0.14254862070083618,
          0.07770444452762604,
          -0.05349862575531006,
          0.038051705807447433,
          0.038155313581228256,
          0.10712449252605438,
          -0.035517700016498566,
          0.06265348941087723,
          -0.12343385070562363,
          0.08338254690170288,
          0.08759922534227371,
          0.12487310916185379,
          -0.1555178463459015,
          0.08249974250793457,
          -0.02437882125377655,
          0.12327727675437927,
          0.044198572635650635,
          0.13592460751533508,
          0.02733215130865574,
          0.060654111206531525,
          0.05644264817237854,
          0.014062893576920033,
          -0.04106490686535835,
          -0.003451100317761302,
          0.05123301222920418,
          0.19002000987529755
        ],
        [
          -0.05171903222799301,
          0.10813697427511215,
          -0.04245128482580185,
          0.1398932784795761,
          0.013783838599920273,
          0.0635872408747673,
          0.09808630496263504,
          0.05112907662987709,
          -0.025441212579607964,
          -0.048289693892002106,
          0.011967122554779053,
          0.11680854111909866,
          0.011761165224015713,
          0.021782491356134415,
          0.006160220596939325,
          0.07840085029602051,
          -0.07409565895795822,
          0.0743170753121376,
          0.017839018255472183,
          -0.022289739921689034,
          0.03600554168224335,
          -0.10996485501527786,
          -0.019403235986828804,
          0.17629767954349518,
          0.027609365060925484,
          -0.019862253218889236,
          0.15333977341651917,
          0.02277126908302307,
          0.012178424745798111,
          0.03198578208684921,
          0.033201899379491806,
          0.1042923703789711,
          0.044976577162742615,
          0.020581858232617378,
          -0.08336653560400009,
          -0.048173218965530396,
          -0.05532323196530342,
          0.04608035832643509,
          -0.009473098441958427,
          0.06817492842674255,
          -0.09795177727937698,
          -0.01511155255138874,
          -0.057824697345495224,
          0.09996373951435089,
          -9.362962009618059e-05,
          0.024728460237383842,
          -0.09248842298984528,
          -0.032457150518894196,
          0.07975779473781586,
          -0.013123820535838604,
          -0.12285424768924713,
          0.003182302927598357,
          0.02306061051785946,
          -0.04641095921397209,
          0.06714016199111938,
          -0.011841507628560066,
          -0.051833752542734146,
          -0.002049705944955349,
          0.030734146013855934,
          -0.033807434141635895,
          0.06547746062278748,
          0.08231502771377563,
          -0.03820398822426796,
          0.09721551835536957
        ],
        [
          0.03163116052746773,
          0.014349124394357204,
          0.08353061228990555,
          0.06367281079292297,
          -0.08866079151630402,
          -0.12702810764312744,
          -0.07672221958637238,
          0.07332237809896469,
          0.039700303226709366,
          -0.03185177966952324,
          -0.053221818059682846,
          -0.01649203710258007,
          -0.06665152311325073,
          -0.013557739555835724,
          0.06536224484443665,
          -0.040292516350746155,
          -0.059863608330488205,
          -0.004606830887496471,
          0.021182550117373466,
          -0.0309487022459507,
          0.12406525015830994,
          -0.027517111971974373,
          0.06613054871559143,
          0.07909315824508667,
          -0.092546746134758,
          -0.08364739269018173,
          0.08712989836931229,
          -0.026582052931189537,
          0.08591530472040176,
          -0.09497819095849991,
          -0.00841696746647358,
          -0.018496736884117126,
          -0.05192078277468681,
          0.05437728017568588,
          -0.06750662624835968,
          -0.10603303462266922,
          -0.017379948869347572,
          0.06972958892583847,
          0.0708920955657959,
          0.12343030422925949,
          -0.010735065676271915,
          -0.004845140036195517,
          -0.035309821367263794,
          0.10260982066392899,
          -0.0471658892929554,
          0.08883988857269287,
          -0.023055892437696457,
          -0.007493424694985151,
          0.020062893629074097,
          -0.03566485643386841,
          -0.07377645373344421,
          -0.01891554519534111,
          -0.02725537307560444,
          0.06418748944997787,
          0.0745779350399971,
          0.09427990764379501,
          0.13599459826946259,
          0.046631570905447006,
          0.02697799541056156,
          0.13968944549560547,
          0.0904514268040657,
          0.014503411948680878,
          -0.08741535991430283,
          0.19147889316082
        ],
        [
          -0.019727924838662148,
          0.07319970428943634,
          -0.10873857140541077,
          0.0508667416870594,
          0.04845185950398445,
          -0.02509114146232605,
          0.07175619900226593,
          0.15291890501976013,
          0.09634291380643845,
          -0.05181422084569931,
          0.09136473387479782,
          -0.03461461886763573,
          0.15789207816123962,
          0.027540316805243492,
          0.1545555293560028,
          0.1587747037410736,
          0.0190986730158329,
          0.022808194160461426,
          -0.08420970290899277,
          -0.03407774865627289,
          0.008081738837063313,
          -0.04890725389122963,
          -0.05649074167013168,
          -0.051646098494529724,
          0.0523870512843132,
          0.05699393153190613,
          0.08754384517669678,
          0.09356888383626938,
          0.14072401821613312,
          0.13514715433120728,
          0.11111535876989365,
          -0.0015278611099347472,
          0.06917139142751694,
          0.15720057487487793,
          -0.07501068711280823,
          -0.01776633970439434,
          -0.09632908552885056,
          0.14563678205013275,
          0.08449038863182068,
          0.0867522656917572,
          -0.09647148847579956,
          0.046757131814956665,
          0.15123982727527618,
          -0.007681685499846935,
          -0.025222402065992355,
          0.05804165452718735,
          -0.013043246231973171,
          0.1556352823972702,
          0.10074508935213089,
          0.041063301265239716,
          -0.14653748273849487,
          0.02448882907629013,
          0.10524178296327591,
          0.11266019195318222,
          0.08292077481746674,
          0.14344674348831177,
          0.03535332903265953,
          0.04090629145503044,
          0.06652168929576874,
          -0.024516014382243156,
          0.03850950673222542,
          -0.14336267113685608,
          -0.0637761577963829,
          0.03423623740673065
        ],
        [
          -0.15826624631881714,
          -0.06914510577917099,
          -0.10324984043836594,
          -0.006954549811780453,
          -0.09049057215452194,
          0.07610251754522324,
          -0.02641485445201397,
          -0.03532159700989723,
          0.06637059897184372,
          0.005749110132455826,
          -0.05662160739302635,
          -0.0033035259693861008,
          0.08136298507452011,
          -0.046374160796403885,
          0.04846043512225151,
          -0.04007672145962715,
          -0.050761234015226364,
          0.08877340704202652,
          -0.07020928710699081,
          0.011440007947385311,
          -0.12449010461568832,
          0.03684444725513458,
          0.048961397260427475,
          0.10015273094177246,
          0.03683354705572128,
          0.08783923834562302,
          0.15232007205486298,
          0.13841953873634338,
          -0.006432910915464163,
          0.08159605413675308,
          0.11489387601613998,
          0.06543932855129242,
          0.04244454205036163,
          -0.015433244407176971,
          -0.1394158899784088,
          0.05583448335528374,
          0.08738498389720917,
          0.07734810560941696,
          0.12543323636054993,
          -0.01435889583081007,
          -0.021900147199630737,
          0.017788846045732498,
          0.025066262111067772,
          0.15162837505340576,
          0.0051193260587751865,
          0.059304896742105484,
          0.04325667768716812,
          0.11730855703353882,
          0.12389851361513138,
          0.1196894720196724,
          0.04022225737571716,
          0.10194949060678482,
          0.11882567405700684,
          0.01970754936337471,
          0.08480846881866455,
          -0.03388640284538269,
          -0.023518109694123268,
          0.14680379629135132,
          0.041412584483623505,
          0.0810612365603447,
          -0.035262469202280045,
          0.04066692665219307,
          -0.011680148541927338,
          0.1813499480485916
        ],
        [
          -0.15741930902004242,
          -0.014016207307577133,
          0.07276325672864914,
          0.05542031303048134,
          -0.08616705983877182,
          0.04009643569588661,
          0.16272880136966705,
          0.15973933041095734,
          -0.024790693074464798,
          0.07437136024236679,
          0.01996946893632412,
          0.058392688632011414,
          0.0039059207774698734,
          -0.013304612599313259,
          0.1310475468635559,
          -0.010508708655834198,
          0.04453941062092781,
          -0.05824461206793785,
          0.004527803510427475,
          0.0050394549034535885,
          -0.10526156425476074,
          0.032231125980615616,
          0.06257383525371552,
          0.16014836728572845,
          -0.009449594654142857,
          0.11976715177297592,
          -0.029046524316072464,
          0.03288750723004341,
          -0.02329733781516552,
          0.04288038983941078,
          0.09253457933664322,
          0.12922999262809753,
          -0.028811082243919373,
          0.08076855540275574,
          -0.1577450931072235,
          0.017562318593263626,
          0.014826390892267227,
          0.03767295181751251,
          0.09304913878440857,
          -0.049216512590646744,
          -0.032709795981645584,
          -0.07944055646657944,
          0.00548858568072319,
          0.022311370819807053,
          -0.007316096220165491,
          0.013998587615787983,
          0.012156262993812561,
          -0.03732774406671524,
          -0.017132241278886795,
          -0.0035328855738043785,
          -0.06282050907611847,
          0.11732688546180725,
          0.09872514009475708,
          0.11147034168243408,
          0.0648626908659935,
          0.11398995667695999,
          0.01379141490906477,
          0.015090731903910637,
          -0.012859759852290154,
          0.1416243314743042,
          -0.04394565522670746,
          0.0663716122508049,
          0.07251954823732376,
          0.14593230187892914
        ],
        [
          0.07908470928668976,
          -0.07989738881587982,
          0.16528232395648956,
          0.09369436651468277,
          0.1408977061510086,
          0.15614129602909088,
          0.08158336579799652,
          0.038606029003858566,
          0.09763789176940918,
          0.08716359734535217,
          -0.010559317655861378,
          -0.037930797785520554,
          -0.12956863641738892,
          0.17053259909152985,
          0.030731365084648132,
          0.0036124654579907656,
          0.10963719338178635,
          -0.014072711579501629,
          -0.0008172006346285343,
          0.17260335385799408,
          0.04540594294667244,
          0.17412368953227997,
          0.13317365944385529,
          -0.015522473491728306,
          0.060686033219099045,
          0.030275331810116768,
          -0.12702183425426483,
          -4.877693208982237e-05,
          0.01794191636145115,
          0.004220998380333185,
          -0.07425689697265625,
          -0.10699456930160522,
          0.07540062814950943,
          -0.08297329396009445,
          -0.0008838496869429946,
          -0.024098757654428482,
          0.1287538707256317,
          0.01639411225914955,
          -0.0484260655939579,
          -0.01973702572286129,
          0.06684985756874084,
          -0.0018630269914865494,
          -0.02290913835167885,
          0.08038631081581116,
          0.06614973396062851,
          0.047581154853105545,
          0.03208943083882332,
          -0.11065122485160828,
          -0.03997104614973068,
          0.08345159888267517,
          0.008141492493450642,
          0.06728824973106384,
          -0.035858117043972015,
          0.02799340896308422,
          -0.0181796383112669,
          0.1428815722465515,
          0.010101767256855965,
          0.013015877455472946,
          -0.028246400877833366,
          -0.11180756986141205,
          0.056624479591846466,
          -0.028039662167429924,
          -0.02033747360110283,
          -0.15385255217552185
        ],
        [
          0.03243530914187431,
          0.11642137914896011,
          -0.025449488312005997,
          0.06986425817012787,
          -0.1486123502254486,
          0.07881543040275574,
          -0.015400528907775879,
          -0.02342572622001171,
          -0.02155955880880356,
          0.05787380784749985,
          0.011507062241435051,
          0.009380324743688107,
          0.14842332899570465,
          -0.03963194787502289,
          0.15044261515140533,
          -0.030109701678156853,
          0.151591494679451,
          -0.0509660504758358,
          -0.13564710319042206,
          -0.04381915554404259,
          -0.003606528742238879,
          -0.06249075010418892,
          -0.016619481146335602,
          -0.034016940742731094,
          0.06678620725870132,
          0.15821965038776398,
          0.07252206653356552,
          -0.0022525186650455,
          0.1617428958415985,
          0.08958525955677032,
          0.0004872610734310001,
          0.08255419880151749,
          -0.025803914293646812,
          0.16451232135295868,
          -0.055676307529211044,
          -0.06566384434700012,
          0.022051075473427773,
          0.13596998155117035,
          0.08801205456256866,
          0.12110593169927597,
          -0.12553523480892181,
          -0.024463728070259094,
          -0.02855692245066166,
          0.04874871298670769,
          -0.041846878826618195,
          0.10416027903556824,
          -0.0981023907661438,
          0.011350763961672783,
          0.11090632528066635,
          0.158061683177948,
          -0.0030899194534868,
          -0.025588877499103546,
          -0.03769382834434509,
          -0.05671696364879608,
          0.017370671033859253,
          0.10490491986274719,
          0.07634708285331726,
          0.159522145986557,
          0.026525745168328285,
          0.030906006693840027,
          -0.015013185329735279,
          -0.08176491409540176,
          -0.019597765058279037,
          0.15373453497886658
        ],
        [
          0.06861404329538345,
          -0.008326072245836258,
          0.18347705900669098,
          0.12242050468921661,
          -0.02601797692477703,
          0.09949620068073273,
          -0.022098833695054054,
          -0.04480282589793205,
          -0.06361503899097443,
          0.0389997698366642,
          0.09348709136247635,
          0.09905777126550674,
          -0.12250074744224548,
          -0.025071898475289345,
          0.09636040776968002,
          0.022945312783122063,
          -0.03841912001371384,
          -0.03309425711631775,
          0.06766758859157562,
          0.1543496698141098,
          0.08056159317493439,
          -0.012775484472513199,
          0.14238028228282928,
          -0.08213979005813599,
          0.045287784188985825,
          -0.07043206691741943,
          0.0809093490242958,
          -0.026996448636054993,
          0.08076626062393188,
          -0.05378358066082001,
          0.05640837177634239,
          -0.030072005465626717,
          0.18183456361293793,
          0.07262089103460312,
          0.07792965322732925,
          -0.05926382541656494,
          0.13995739817619324,
          0.11591220647096634,
          -0.1146593913435936,
          0.06446721404790878,
          0.1292978674173355,
          0.008840994909405708,
          -0.07384933531284332,
          0.052759405225515366,
          0.011155051179230213,
          0.1399317979812622,
          0.07948864996433258,
          -0.10124571621417999,
          -0.02155175432562828,
          0.09441814571619034,
          0.10296276211738586,
          -0.032631177455186844,
          0.025771530345082283,
          -0.012118767015635967,
          -0.010860000737011433,
          0.0867755264043808,
          0.0745803564786911,
          0.08854331821203232,
          0.1264340579509735,
          0.0838441476225853,
          0.12384116649627686,
          -0.05249764025211334,
          0.11643654108047485,
          -0.12265250831842422
        ],
        [
          -0.18821129202842712,
          0.34149226546287537,
          -0.1164655089378357,
          -0.11513718962669373,
          -0.14048632979393005,
          -0.1583026796579361,
          0.012879022397100925,
          0.10346422344446182,
          -0.012919164262712002,
          0.1974741518497467,
          -0.19419117271900177,
          -0.13458412885665894,
          0.2003624588251114,
          -0.17531991004943848,
          0.16494254767894745,
          0.007126182317733765,
          -0.17181655764579773,
          -0.207431823015213,
          -0.1077001541852951,
          -0.07948791235685349,
          -0.1845664530992508,
          0.00758597394451499,
          0.0767301619052887,
          0.038943566381931305,
          0.16193193197250366,
          -0.06677458435297012,
          0.0018024628516286612,
          -0.07047994434833527,
          0.020993990823626518,
          0.057844534516334534,
          0.09826133400201797,
          0.07748597860336304,
          -0.08435464650392532,
          0.024697735905647278,
          -0.034279800951480865,
          -0.08687954396009445,
          -0.25450196862220764,
          -0.019200947135686874,
          0.16078484058380127,
          -0.16555997729301453,
          0.023949086666107178,
          -0.08509081602096558,
          0.2551376521587372,
          0.10749586671590805,
          0.04740260913968086,
          -0.2932811379432678,
          -0.06358721852302551,
          0.04137888923287392,
          0.035871103405952454,
          -0.048502590507268906,
          -0.057387541979551315,
          0.1361231505870819,
          0.08491958677768707,
          -0.00963619351387024,
          0.05808308720588684,
          0.11527354270219803,
          -0.1909574568271637,
          0.024961913004517555,
          0.015055722557008266,
          0.1753091663122177,
          -0.1923813372850418,
          -0.08996837586164474,
          -0.09820624440908432,
          0.44191622734069824
        ],
        [
          0.17273344099521637,
          0.015044989995658398,
          0.1141011118888855,
          0.12073376774787903,
          0.18228183686733246,
          0.10193254053592682,
          -0.09720737487077713,
          -0.04122331365942955,
          0.037491362541913986,
          0.08826791495084763,
          0.04680411517620087,
          0.08714267611503601,
          -0.045605238527059555,
          -0.050952740013599396,
          0.028195498511195183,
          -0.13333646953105927,
          0.0254280436784029,
          0.04678890109062195,
          -0.023073269054293633,
          0.08070015162229538,
          0.12156891077756882,
          0.1464787721633911,
          0.10708380490541458,
          0.04413488134741783,
          0.018295837566256523,
          -0.008372035808861256,
          0.05979079380631447,
          0.11426424980163574,
          0.03990492224693298,
          -0.011652624234557152,
          -0.03195228800177574,
          -0.13777238130569458,
          0.09899360686540604,
          0.06507723778486252,
          0.1719515174627304,
          -0.03617878630757332,
          0.036535441875457764,
          0.1274348348379135,
          -0.09245488792657852,
          0.07253583520650864,
          0.06622383743524551,
          -0.018230803310871124,
          -0.033159490674734116,
          -0.015030906535685062,
          0.1529489904642105,
          0.06014518067240715,
          -0.004390483256429434,
          0.006858153268694878,
          0.01041495893150568,
          0.07014571875333786,
          0.11846219748258591,
          -0.002933545969426632,
          -0.013746858574450016,
          0.02555393986403942,
          0.10311348736286163,
          0.14672626554965973,
          0.09385500848293304,
          0.06511402130126953,
          0.004425422754138708,
          -0.002302686683833599,
          -0.02151404321193695,
          0.14388197660446167,
          -0.0016384926857426763,
          -0.20565734803676605
        ],
        [
          0.06370456516742706,
          -0.019560856744647026,
          -0.06398838758468628,
          0.112916000187397,
          -0.08780061453580856,
          -0.03551943600177765,
          -0.02813575603067875,
          -0.019505467265844345,
          0.07383314520120621,
          -0.04291188716888428,
          -0.06389035284519196,
          -0.05956960469484329,
          -0.04884440451860428,
          -0.001155900303274393,
          -0.05197286605834961,
          0.056603725999593735,
          0.075767382979393,
          0.02673264779150486,
          -0.08076075464487076,
          -0.1103326603770256,
          0.02293434552848339,
          0.020994696766138077,
          0.07647767663002014,
          -0.024644218385219574,
          0.12110057473182678,
          0.03394733741879463,
          0.11190582811832428,
          0.015132377855479717,
          0.15661975741386414,
          0.03526179492473602,
          0.12146417051553726,
          0.03481652960181236,
          0.019411446526646614,
          0.011878188699483871,
          0.05173951014876366,
          0.06715623289346695,
          -0.037366583943367004,
          0.10557178407907486,
          0.12144589424133301,
          0.09908989816904068,
          -0.12191157788038254,
          -0.00772166159003973,
          0.024286286905407906,
          0.06165626272559166,
          -0.07021071761846542,
          0.08996473252773285,
          -0.16665934026241302,
          0.16450950503349304,
          0.006001048721373081,
          0.1303703933954239,
          0.016367096453905106,
          0.09385465830564499,
          0.15453864634037018,
          0.06222254037857056,
          -0.014359822496771812,
          0.028580691665410995,
          0.11453556269407272,
          0.031060095876455307,
          -0.07645369321107864,
          0.10514407604932785,
          0.0761108323931694,
          -0.06600020080804825,
          0.05920923501253128,
          0.14314591884613037
        ]
      ],
      "bias": [
        -0.028077516704797745,
        0.02647356502711773,
        -0.02699565514922142,
        0.12745507061481476,
        -0.01584714837372303,
        0.1278708279132843,
        0.1659194827079773,
        0.09668993204832077,
        0.1797996461391449,
        0.1708453893661499,
        0.1263512223958969,
        -0.009208234027028084,
        -0.02317163534462452,
        -0.05654582753777504,
        0.022081688046455383,
        -0.02473124861717224,
        -0.07840119302272797,
        0.07520220428705215,
        0.09626917541027069,
        0.06077893450856209,
        0.11103113740682602,
        0.06909271329641342,
        -0.03200635313987732,
        0.101346954703331,
        0.09512777626514435,
        0.07042129337787628,
        0.13706475496292114,
        0.12543222308158875,
        -0.001638999441638589,
        -0.21291141211986542,
        0.12923842668533325,
        0.001894826884381473
      ]
    },
    {
      "weights": [
        [
          0.17697815597057343,
          0.1859404593706131,
          -0.05873461440205574,
          0.19739669561386108,
          0.11821301281452179,
          0.0568893663585186,
          0.15617431700229645,
          0.019440773874521255,
          0.07504070550203323,
          0.11443732678890228,
          -0.021913759410381317,
          -0.12191449105739594,
          -0.03013555333018303,
          0.03337188437581062,
          -0.028444597497582436,
          0.20664933323860168,
          0.03754409775137901,
          0.12848559021949768,
          0.05100980028510094,
          -0.0005129072815179825,
          0.21651270985603333,
          0.15008121728897095,
          0.10581455379724503,
          0.20528599619865417,
          0.09470256417989731,
          -0.0015813346253708005,
          -0.1665203869342804,
          -0.01284339465200901,
          0.05589977651834488,
          0.23668068647384644,
          -0.06010142341256142,
          0.08115194737911224
        ],
        [
          -0.07849998772144318,
          -0.1262941062450409,
          0.16352318227291107,
          -0.11255016922950745,
          -0.035319674760103226,
          0.03660024702548981,
          -0.1746748834848404,
          0.22498063743114471,
          0.12483114004135132,
          0.1008400246500969,
          0.16190463304519653,
          0.26737287640571594,
          0.04039626941084862,
          0.08710983395576477,
          0.07658912986516953,
          -0.053969915956258774,
          -0.04990651458501816,
          -0.120897077023983,
          -0.14753839373588562,
          -0.0318974032998085,
          0.10398012399673462,
          -0.11600849777460098,
          -0.16429674625396729,
          0.005925235338509083,
          -0.07488184422254562,
          -0.030114175751805305,
          0.16928419470787048,
          -0.062167998403310776,
          0.10750917345285416,
          -0.34618616104125977,
          0.23030485212802887,
          0.060648322105407715
        ],
        [
          -4.0631853153172415e-06,
          -0.007921567186713219,
          0.0328105166554451,
          -0.006264838390052319,
          -0.1030881330370903,
          -0.03314731642603874,
          -0.0008354723686352372,
          0.062414657324552536,
          0.05121612921357155,
          -0.05883139744400978,
          -0.06369315832853317,
          -0.03652062639594078,
          -0.004470819607377052,
          0.08335740119218826,
          0.0015609072288498282,
          -0.0003782631829380989,
          0.002027206588536501,
          -0.0024814819917082787,
          -0.00013874647265765816,
          -3.6018969694850966e-05,
          -0.014304841868579388,
          -0.001392866251990199,
          -0.0008584774332121015,
          -0.11327268183231354,
          -0.015714164823293686,
          0.011136882938444614,
          0.0780562087893486,
          -0.0005636903224512935,
          0.08594471216201782,
          0.05134858191013336,
          -0.13286414742469788,
          -0.0009765267022885382
        ],
        [
          0.06510496884584427,
          -0.12582668662071228,
          0.12431663274765015,
          0.045630957931280136,
          -0.00808775145560503,
          0.0308565441519022,
          0.0844445452094078,
          0.16692952811717987,
          0.052600208669900894,
          0.04474426433444023,
          0.10729452967643738,
          0.21469901502132416,
          -0.07208120077848434,
          -0.0618545264005661,
          0.20092952251434326,
          -0.02946098893880844,
          -0.12066265195608139,
          -0.035412807017564774,
          0.07942181080579758,
          -0.20316976308822632,
          0.13905394077301025,
          -0.08135423064231873,
          -0.09424317628145218,
          0.08192706853151321,
          -0.054635871201753616,
          0.025179728865623474,
          0.06420169770717621,
          -0.20590007305145264,
          0.012954882346093655,
          -0.4258107841014862,
          -0.04250531643629074,
          -0.13308300077915192
        ],
        [
          0.10557647794485092,
          0.0853017270565033,
          -0.22257453203201294,
          0.034275952726602554,
          -0.13341140747070312,
          -0.48519575595855713,
          0.10447561740875244,
          -0.09286603331565857,
          -0.398599773645401,
          0.0061068106442689896,
          -0.4274654984474182,
          0.24690870940685272,
          0.06948705017566681,
          0.14330022037029266,
          -0.01093663927167654,
          0.12651920318603516,
          -0.10004730522632599,
          0.07302182167768478,
          0.044514916837215424,
          0.13009506464004517,
          0.04329612851142883,
          0.06081155687570572,
          0.06809934228658676,
          0.07379346340894699,
          0.06732606887817383,
          0.12806066870689392,
          -0.38218969106674194,
          0.034885622560977936,
          -0.2386084794998169,
          0.8043810725212097,
          -0.2682681381702423,
          0.04557101055979729
        ],
        [
          -0.13064509630203247,
          -0.13733899593353271,
          0.11695829778909683,
          -0.0690242201089859,
          0.07482831925153732,
          0.051257841289043427,
          -0.25950777530670166,
          0.13393208384513855,
          0.16094978153705597,
          -0.274292528629303,
          0.1138908639550209,
          -0.012549543753266335,
          -0.26792556047439575,
          -0.06786537170410156,
          -0.03977411612868309,
          -0.4351373314857483,
          0.030463596805930138,
          -0.2968805134296417,
          -0.23847749829292297,
          -0.36867621541023254,
          -0.18124805390834808,
          -0.0942058190703392,
          -0.16133801639080048,
          -0.31365182995796204,
          -0.20384114980697632,
          -0.22975383698940277,
          0.2605755627155304,
          -0.1345328986644745,
          0.23961181938648224,
          -0.0010718682315200567,
          0.1734641045331955,
          0.09523729979991913
        ],
        [
          0.0556299164891243,
          -0.07758772373199463,
          -0.056219279766082764,
          0.10975118726491928,
          0.07656149566173553,
          -0.01678519882261753,
          -0.08073500543832779,
          0.1328517198562622,
          0.1774807721376419,
          0.12621153891086578,
          0.03752298280596733,
          0.011730334721505642,
          -0.0026229573413729668,
          0.016654156148433685,
          0.043147772550582886,
          -0.15164606273174286,
          -0.07277530431747437,
          0.10289742797613144,
          -0.0026602519210428,
          0.06316567212343216,
          -0.030277252197265625,
          -0.08422157168388367,
          -0.1335231363773346,
          -0.06963401287794113,
          -0.09904509782791138,
          -0.11328444629907608,
          0.1280311495065689,
          0.12691600620746613,
          0.2078097015619278,
          -0.3203291594982147,
          0.035300251096487045,
          0.04417318478226662
        ],
        [
          -0.010343935340642929,
          0.0532449334859848,
          0.13870978355407715,
          0.006362734362483025,
          0.04020381718873978,
          0.11027082800865173,
          0.060192108154296875,
          -0.07793574035167694,
          -0.05817500874400139,
          -0.13516761362552643,
          0.0974198430776596,
          0.11483554542064667,
          -0.07215189188718796,
          0.03274933993816376,
          0.07419125735759735,
          -0.0968983992934227,
          -0.060322392731904984,
          0.08672501891851425,
          0.08868586272001266,
          -0.0019730180501937866,
          -0.05257761478424072,
          -0.04551900550723076,
          -0.03062928281724453,
          0.08051074296236038,
          0.05528164654970169,
          -0.009162328206002712,
          0.02830437943339348,
          -0.10176267474889755,
          0.08955889940261841,
          -0.19896462559700012,
          0.0321996696293354,
          0.045122046023607254
        ],
        [
          0.0011798773193731904,
          0.07369539886713028,
          0.22910451889038086,
          0.08548655360937119,
          0.13193127512931824,
          0.021783914417028427,
          -0.16423965990543365,
          0.09361652284860611,
          0.10901036858558655,
          -0.06118768826127052,
          0.16201719641685486,
          0.01247269194573164,
          -0.03137104585766792,
          -0.04454708471894264,
          0.18209217488765717,
          -0.12385713309049606,
          0.00972570851445198,
          -0.03360718861222267,
          0.04822239652276039,
          -0.09598094969987869,
          -0.05715668573975563,
          -0.0796719491481781,
          -0.021403975784778595,
          0.01542919036000967,
          -0.09312581270933151,
          -0.05059489235281944,
          0.13422708213329315,
          -0.16299133002758026,
          0.21557334065437317,
          -0.17219246923923492,
          0.05889912322163582,
          0.13479815423488617
        ],
        [
          0.19959640502929688,
          0.23040229082107544,
          -0.06023063883185387,
          0.19724607467651367,
          -0.10971007496118546,
          -0.17338964343070984,
          -0.033103097230196,
          0.17034979164600372,
          0.06220588833093643,
          0.23566603660583496,
          -0.13488809764385223,
          -0.04047654569149017,
          0.1636151671409607,
          0.07686734199523926,
          0.180376335978508,
          0.0510590486228466,
          -0.05401632562279701,
          0.21928317844867706,
          0.08063457906246185,
          -0.0015357935335487127,
          0.1851942390203476,
          0.033792149275541306,
          0.18077494204044342,
          0.0904315859079361,
          0.16444076597690582,
          0.20465317368507385,
          -0.08281618356704712,
          0.1525755226612091,
          0.00016105092072393745,
          0.2901560962200165,
          0.009437602013349533,
